@CO	shape:(293,)
@CO	dtype:float64
VALUE_0
-0.16303299433890284
-0.5811395258063916
-0.0021463246995590936
0.28979373154434684
-0.6374107837315234
-0.485546854341872
0.08580157400042521
-0.7939332650727999
-0.1707015694650085
-0.13561762524301407
-0.5649935328990005
0.05165909803441951
0.07633686519157398
0.26045442060275936
-0.32899851188671136
0.1797685506344982
-1.2818327465181956
0.004924544592619425
-0.979518154065069
0.20806890310808132
-0.13308347781312008
0.08149101062624592
-0.1997847756946753
-0.04133464289016131
0.1256065053625551
-0.300894025772039
-1.025604116384629
0.6466154952851848
0.19391807715405032
0.08210043669766463
0.06959504930023527
-0.16998925543066812
-0.5791939521222582
-0.9491809525212558
-0.24749092698051525
0.15214004467596012
-0.48716110017548087
-0.18271630856988355
0.05980493080626185
0.084513827395727
-0.004107524067470116
0.7374192808206516
-0.12734828460893297
-1.0387920147085152
-0.5951068658170824
-0.5896344715167007
-0.3512376681965899
-0.2188730766160457
-0.28339558075089855
1.0089405814384005
0.5541534735186076
-0.21107232193389028
0.1028235402672368
-0.27188238951126764
-1.0246517202698697
-0.6695068440880679
-0.19253302243973536
-0.09527974925955096
0.26747945606974205
-0.14013634421429608
-0.09071859653092154
0.39108902699463194
-0.12993559981844563
-0.2179227556672951
0.03002506566095072
-0.1362898697351111
0.617407532437716
-0.5006829482483784
-0.6601083075559093
0.3308626313396237
-0.07657879880318973
-0.26566863087044723
0.35383177304490915
-0.971708453833107
-0.5891746438371412
0.46788881442309416
0.16795011872437235
0.49705253673446054
-0.013316835571440672
0.4996225368601929
-0.6516209461609247
-0.4089698537217247
-0.027945795080062542
0.046212888172430786
0.12115189544585848
-0.5696636166354007
-0.7198070225938443
0.05191497694829203
-0.8198606586743413
-0.3607000397218533
-0.670550790561934
-0.5796860825431394
-0.6762281194025769
-1.2037670967205183
0.28429944761500453
-0.40794410290848915
-0.0862932838428471
0.19784505851734482
-0.14428403900216522
-0.1651171147744784
-0.22538403209615804
0.2598871568803483
0.2942957252852347
-0.4632680801158017
-0.01635193305207717
-0.3634577388740356
0.4492625927260125
-0.2863001593200812
-0.7165927630748743
0.3983682527126071
-0.1726972123856808
-0.045541452822805265
-0.36728748627464475
-1.0295156670350698
-0.5472355860039186
-0.33232407880684256
0.008786685720123956
-0.29591840669802577
-0.1979656453326407
-0.1798101010002987
-0.4995542865360361
-0.13308547942318993
-0.002303878893200127
-0.6749685772938945
-0.669165773262086
-0.4209912773985095
-0.22277898187653195
0.10806596212200086
1.0615033877719482
-0.6588569615603953
0.7673365117837798
-0.8773101174869413
-0.9280399395649295
-0.1420114912012941
-0.6682718605011033
-0.4339865421650886
-0.3544406845468713
-0.43453953807862067
0.19972441630672585
-0.21403695896869165
-0.08384340711972445
-0.09468763129113353
-0.4386872816994897
-0.7554978147976115
-0.22198576767621797
-0.532672300185747
-0.5837503085976832
-0.1868194999879773
-0.35156428149875996
-0.7366087903145241
0.5387744887555214
-0.574859645206779
-0.1033409518082231
-0.27790528927161107
0.15688839768566906
0.5099207760617083
0.11980120852430656
0.14875689689267266
-0.08163514795913342
-0.9073099426163976
0.08892402613877615
0.0744978217059335
-0.8246204332094019
-0.3478816919396197
0.1797647992952843
0.1874334205443743
-0.5508242385262452
-0.4728172514750605
0.2075411662721046
0.11168766476338195
-0.10626436445736237
-0.33716338592586576
-1.2411214831795143
-0.03207901610010843
-0.18936753153106892
-0.9490693830820427
-0.27525124404555024
0.17997480383567674
-0.8218707893163311
0.6549241918815188
0.2316153853566146
0.1624414926872951
-0.2684875885065879
-0.24066287483430637
0.3537531674365983
-1.0795229385000953
-0.05104863200109807
-0.7724607365169585
0.27222233937412144
-0.11711299783991237
-0.034227874016132115
0.2630487261406828
-0.23998393471763874
-0.293616160235098
0.27747840881791075
-0.446944213674923
-0.804815247550375
0.15029476797560315
-0.4005865631182446
0.003082285074695818
-0.7223381257389183
-0.39056558939679714
-0.3545243518369963
0.6417893643815815
0.6222020963351234
0.3715046172957805
-0.5802150711770827
-0.3934265746716744
0.20246077358846762
-0.11596168135233903
-0.17535208481720366
0.04599260084480211
0.18527642039661707
-0.6476564429646048
0.2605191982856641
-0.13726113213151048
0.3150148031775895
-0.7156734197194007
-0.05771737488496896
-0.09384311577796549
-0.07793094720096086
0.3300933126163311
0.23146893315516193
-0.5648188251185008
-0.13246252464343655
-0.006199419389085143
0.2897067281391063
0.741335918569204
0.14621635237493175
0.33425708108909846
-0.3440762203500131
0.5322432376024216
-0.8310353533644534
0.2517595823819083
-0.026390829149048344
0.25511170169732794
0.02816079497386954
-0.43567272970066867
-0.24041894778249967
-0.07747805044083632
-0.7146098760594498
-0.29766717579799085
-0.241556782852573
0.6245093386619479
0.21247963708317277
0.6398872487368279
-0.5563476123261152
-0.10385759744297027
0.47496776628037113
0.4898805562377912
0.36417814764869993
0.2879098324351346
0.09178349968121739
-0.5927217638875136
0.3857749045145922
-0.07256979170069694
0.14322257463565033
-0.2218471444484298
0.7343413550027926
-0.5071842034918221
-1.4943442568030767
-0.5467640446254319
0.3882026625708828
-0.22358834686925272
0.026603576398640312
-0.42530558262481777
-0.16216376609577277
-0.05923681387764005
-1.2111417312475132
0.09332593045816694
0.43764461488406137
-0.1087675594905276
-0.23882078090878225
-0.5446212122751195
0.40877614722599115
-0.3383620744093053
0.26843151476295424
-0.04898419351868638
-0.7746270701080341
0.7030984791957408
0.5467999087891889
0.12115060745525737
0.08557677558032852
0.0810570881306071
-0.34116339622361624
-0.011813510159705807
-0.5068544592653639
0.10909417042375562
0.2068188952397531
-0.2608184194739626
-0.08131847203290853
-0.37725500677383217
0.0391956835479577
