@shape=(293,)
@dtype=float64
-0.16303299433890353
-0.58113952580638961
-0.0021463246995605313
0.28979373154434673
-0.63741078373152549
-0.48554685434187128
0.085801574000426081
-0.79393326507279971
-0.17070156946500939
-0.13561762524301207
-0.56499353289900178
0.051659098034418538
0.076336865191574219
0.26045442060275892
-0.32899851188671192
0.17976855063449726
-1.2818327465181951
0.0049245445926195909
-0.9795181540650697
0.20806890310808207
-0.13308347781311936
0.081491010626245683
-0.19978477569467337
-0.04133464289016299
0.12560650536255624
-0.30089402577203944
-1.0256041163846294
0.64661549528518769
0.19391807715405043
0.082100436697664897
0.069595049300234357
-0.1699892554306689
-0.57919395212225866
-0.94918095252125467
-0.24749092698051484
0.15214004467596184
-0.48716110017548125
-0.18271630856988416
0.059804930806261543
0.084513827395726659
-0.0041075240674715479
0.73741928082065289
-0.12734828460893322
-1.038792014708515
-0.59510686581708094
-0.58963447151670012
-0.35123766819658958
-0.2188730766160456
-0.28339558075089843
1.0089405814384014
0.55415347351860644
-0.21107232193389058
0.10282354026723667
-0.27188238951126747
-1.0246517202698719
-0.66950684408806937
-0.19253302243973694
-0.095279749259552002
0.26747945606974066
-0.1401363442142968
-0.090718596530922541
0.39108902699463388
-0.12993559981844394
-0.21792275566729441
0.030025065660950211
-0.1362898697351097
0.61740753243771507
-0.50068294824837856
-0.66010830755590999
0.33086263133962368
-0.076578798803189962
-0.26566863087044812
0.35383177304491081
-0.97170845383310767
-0.58917464383714169
0.46788881442309405
0.16795011872437096
0.49705253673446165
-0.013316835571441497
0.49962253686019331
-0.65162094616092447
-0.40896985372172462
-0.027945795080064003
0.046212888172431181
0.12115189544585758
-0.56966361663540133
-0.71980702259384499
0.051914976948291149
-0.81986065867434177
-0.36070003972185372
-0.67055079056193312
-0.57968608254314025
-0.67622811940257865
-1.2037670967205176
0.28429944761500608
-0.40794410290848943
-0.086293283842847915
0.19784505851734471
-0.14428403900216533
-0.16511711477447943
-0.22538403209615809
0.2598871568803473
0.29429572528523579
-0.46326808011580217
-0.016351933052077064
-0.36345773887403537
0.44926259272601038
-0.28630015932008196
-0.71659276307487241
0.39836825271260651
-0.17269721238568153
-0.045541452822804918
-0.3672874862746443
-1.0295156670350707
-0.54723558600391919
-0.33232407880684256
0.0087866857201237773
-0.29591840669802483
-0.1979656453326421
-0.1798101010002989
-0.49955428653603567
-0.13308547942318985
-0.0023038788932002734
-0.67496857729389415
-0.66916577326208582
-0.42099127739851061
-0.22277898187653203
0.10806596212200119
1.0615033877719482
-0.65885696156039564
0.76733651178377993
-0.87731011748694043
-0.92803993956492914
-0.14201149120129475
-0.66827186050110388
-0.43398654216508814
-0.35444068454686939
-0.43453953807861989
0.19972441630672499
-0.2140369589686919
-0.083843407119725294
-0.094687631291131877
-0.43868728169948906
-0.75549781479761435
-0.22198576767621836
-0.53267230018574641
-0.58375030859768184
-0.18681949998797726
-0.35156428149875896
-0.73660879031452653
0.53877448875551881
-0.57485964520677968
-0.10334095180822415
-0.27790528927161079
0.15688839768566795
0.5099207760617086
0.11980120852430481
0.14875689689267274
-0.081635147959133805
-0.90730994261639653
0.088924026138774315
0.07449782170593372
-0.82462043320940293
-0.3478816919396201
0.17976479929528433
0.18743342054437506
-0.55082423852624562
-0.47281725147505976
0.20754116627210442
0.11168766476338164
-0.10626436445736252
-0.33716338592586659
-1.2411214831795121
-0.032079016100109492
-0.18936753153106972
-0.9490693830820397
-0.27525124404555085
0.17997480383567765
-0.82187078931632851
0.65492419188151851
0.23161538535661483
0.16244149268729535
-0.26848758850658894
-0.2406628748343051
0.35375316743659752
-1.0795229385000944
-0.051048632001097646
-0.77246073651695579
0.27222233937412166
-0.11711299783991332
-0.034227874016131754
0.26304872614068392
-0.23998393471763793
-0.29361616023509901
0.27747840881790897
-0.44694421367492487
-0.80481524755037392
0.15029476797560512
-0.40058656311824403
0.0030822850746969905
-0.72233812573891742
-0.39056558939679803
-0.3545243518369971
0.64178936438157985
0.62220209633512169
0.37150461729577988
-0.5802150711770826
-0.39342657467167419
0.20246077358846615
-0.11596168135233996
-0.1753520848172041
0.045992600844803104
0.18527642039661724
-0.64765644296460356
0.26051919828566411
-0.13726113213151098
0.31501480317758895
-0.71567341971940046
-0.05771737488496885
-0.09384311577796571
-0.077930947200961956
0.3300933126163294
0.23146893315516115
-0.56481882511850257
-0.13246252464343655
-0.0061994193890867622
0.28970672813910603
0.74133591856920344
0.14621635237493114
0.33425708108909896
-0.34407622035001395
0.53224323760242032
-0.83103535336445533
0.25175958238190743
-0.02639082914904891
0.25511170169732855
0.02816079497386997
-0.43567272970066995
-0.24041894778250061
-0.07747805044083611
-0.71460987605944792
-0.29766717579798863
-0.24155678285257204
0.62450933866194658
0.21247963708317386
0.63988724873682823
-0.55634761232611285
-0.10385759744297052
0.4749677662803698
0.48988055623778987
0.36417814764870104
0.28790983243513341
0.091783499681216019
-0.59272176388751252
0.38577490451459207
-0.072569791700697911
0.14322257463565122
-0.22184714444843207
0.73434135500279063
-0.50718420349182325
-1.4943442568030765
-0.54676404462543171
0.38820266257088332
-0.22358834686925264
0.026603576398642012
-0.42530558262481732
-0.16216376609577349
-0.059236813877640924
-1.2111417312475141
0.093325930458168255
0.43764461488406131
-0.10876755949052802
-0.2388207809087807
-0.5446212122751205
0.40877614722599082
-0.33836207440930433
0.26843151476295485
-0.048984193518686298
-0.77462707010803378
0.70309847919574087
0.54679990878918816
0.1211506074552582
0.085576775580327738
0.081057088130607829
-0.34116339622361719
-0.011813510159706213
-0.50685445926536421
0.10909417042375491
0.20681889523975175
-0.26081841947396228
-0.081318472032909594
-0.37725500677383161
0.039195683547956911
