@shape=(223,)
@dtype=float64
0.51170267844665995
-0.24862534922416477
-0.98052075149698192
-0.041667409011095426
0.20663260964287145
-0.17983819629518782
-0.25158648989646537
0.20761339408086571
0.2233130154064899
-0.38260493253063749
0.74563637538536287
-0.7900312998423471
0.17702823635461534
-0.53641402558501183
0.67104016161517466
-0.10559771723008665
0.15793444165499407
0.10177746297341481
1.1343539703742669
-0.10870569031117586
-0.72501028444806748
0.11614839577225788
-0.25013056058467298
-0.96052838278725017
-0.18784582599196575
-0.31920545767170116
-0.099463881970340354
-0.45528206787009967
0.0096977558678930809
-0.62578148177208004
-0.88722035519690545
-0.95451074870555164
0.74726363220760628
-0.36344584100001881
-0.4330148357675398
-0.080911312598797996
0.40233669907818143
0.079584335182507543
0.12358151518504465
-0.07075505164461765
-0.020626709799435108
0.23609202843894317
0.46134210506859979
0.18839003463077234
0.17819827878532546
0.4131199654959643
0.063576967594052555
0.068458424897180375
0.55212778586493416
-0.26651562996842931
-0.047683266744282617
0.057794439365034138
-0.92111300722168943
-0.81290273214323094
-0.75129598184520352
0.26772619302937067
-0.12091577116443614
0.46391271593725369
0.095286053505840088
-0.040066866166375559
-0.034999729383066738
-0.022885408426620964
0.13445110159372844
0.34223820385307241
-0.42981528438247329
-0.19169185119248802
-0.028946334905308371
0.34146007303387838
-0.16599791205674649
-0.066757144319815276
-0.070702343729249939
0.30805451231865977
0.10900481958046807
0.066288030504077916
0.23097553504778168
-0.23762584332902148
-0.14223114926453082
0.26082983676109711
-0.041890295208609471
-0.073243785567754793
0.2618165954835372
0.18005808243731561
-0.29237643297517474
-0.2541169536847866
-0.22661616753772923
0.038211243557349464
-0.32443884327545153
0.022658460225488699
-0.17202093015831202
-1.1990215191618545
-0.058769777168924904
0.10967605121328756
-0.78560108533626571
-0.31078747157277969
-0.16751979929617716
-0.39358092485471691
-0.25700703144862508
0.11510443669910209
0.74460170388308544
-0.44823385881682976
0.17313876038529724
0.79779903667430463
0.2681874579581443
0.41094857819480562
-0.61511608048917288
-0.63206408080286913
-0.32675744378718075
-0.18749774009306064
-0.37526736481624695
-0.20680176868993427
-0.35278102702079589
-0.70490755687815554
-0.26815986082532511
-0.50669214296916698
0.62406232219516378
-0.68740759482992264
-0.18045818270703065
-0.38547159648894941
-0.38202435181156974
-0.44319625057257206
0.1290463258836001
-0.48432681922970988
-0.61850936949134172
0.34962892615349478
0.11009254470294137
0.11657624861920755
0.20556941623426347
0.50273276598834393
0.36447269700775492
0.089044662561550456
-0.46722200879120912
0.62342112893535551
0.27987949902741122
-0.033897083864201295
0.50504885236628072
0.80858047616686557
-0.70989724959311873
-0.1595365369794341
-0.79648968617557492
-0.74716421132480815
0.09993127617432554
-0.41141932272040621
0.031580241372219146
0.11735686335325549
0.2419735234841246
0.39815256852403469
-0.58993644306749604
0.23218375800043101
-0.043922567925627688
-0.092077960424794297
0.28358208104749882
-0.31732178630911989
0.079470806293512442
-0.30431166053475017
-0.030912823723445681
-0.13236474670045786
-0.51667447386371224
-0.65260824309015064
0.6803032608295676
0.3406460963474166
-0.275377575594975
0.58660118839947284
-0.69859699981114687
-0.24075695459322899
0.49291134985214802
-0.43322484309226283
-0.87956026003468313
0.50626680110370637
0.15458826139355614
0.20113764243280444
-0.047485419021876356
0.2141375855624425
0.16022096069967712
-0.38670957732199751
0.10464114489763618
-0.4315277589110027
-0.95384896869151969
-0.29865990959628769
-0.052593997087839656
-0.15662309513304515
-0.25539495637926857
-0.38475760540356252
0.44298852592616667
-0.18631602131851593
-0.69558969257224934
0.51643099170519635
-0.0512417847566232
-0.60523624917929542
-0.61043721937001316
0.1475050783776225
-0.4829989557877884
0.32922006693526107
0.45559509693606975
-0.44838750449865727
0.52356774357190505
0.29131852941365982
-0.095478128617779656
0.095190975454053917
-0.57281211422912071
-0.91511249258549443
-0.075099193199949052
-0.074458357111215762
0.06964954281168198
-0.43055557504630926
0.49115919824032528
-0.51628492870721365
-1.1066789077107833
0.0097204146379930006
-0.35986732821255391
0.84401808603961692
0.49877443689291251
-0.26080251645312913
-0.36766234113010793
-0.55695496600126349
-0.74897219636252943
-0.46694185074753447
-0.60209593420808094
0.25297920742765279
-0.11078625846812401
-0.71305990109211359
0.063376602416023484
-0.95408571362783812
-0.60132311540275152
