@CO	shape:(223,)
@CO	dtype:float64
VALUE_0
0.5117026784466608
-0.24862534922416551
-0.9805207514969829
-0.041667409011093934
0.20663260964287147
-0.17983819629518769
-0.2515864898964657
0.20761339408086582
0.22331301540648874
-0.38260493253063826
0.7456363753853625
-0.7900312998423478
0.17702823635461523
-0.5364140255850117
0.6710401616151734
-0.10559771723008587
0.15793444165499398
0.10177746297341528
1.1343539703742658
-0.10870569031117572
-0.7250102844480684
0.11614839577225913
-0.25013056058467353
-0.9605283827872496
-0.1878458259919656
-0.319205457671701
-0.09946388197034065
-0.45528206787010017
0.009697755867892776
-0.6257814817720784
-0.8872203551969067
-0.954510748705551
0.7472636322076078
-0.36344584100001903
-0.43301483576753996
-0.08091131259879708
0.40233669907818137
0.07958433518250746
0.12358151518504457
-0.07075505164461747
-0.020626709799435143
0.2360920284389424
0.4613421050685984
0.18839003463077209
0.17819827878532576
0.41311996549596375
0.0635769675940534
0.0684584248971795
0.5521277858649352
-0.26651562996842926
-0.04768326674428152
0.05779443936503402
-0.9211130072216902
-0.812902732143233
-0.7512959818452041
0.2677261930293724
-0.1209157711644365
0.46391271593725314
0.09528605350583964
-0.040066866166376225
-0.034999729383066044
-0.022885408426621574
0.1344511015937285
0.3422382038530718
-0.42981528438247346
-0.19169185119248755
-0.028946334905308582
0.34146007303387876
-0.16599791205674716
-0.06675714431981625
-0.07070234372924987
0.3080545123186591
0.10900481958046825
0.06628803050407901
0.23097553504778118
-0.2376258433290216
-0.14223114926453279
0.2608298367610977
-0.041890295208609145
-0.07324378556775564
0.26181659548353703
0.18005808243731508
-0.2923764329751748
-0.25411695368478576
-0.2266161675377302
0.03821124355735045
-0.324438843275451
0.02265846022548964
-0.1720209301583117
-1.1990215191618545
-0.058769777168924585
0.1096760512132868
-0.7856010853362658
-0.31078747157277986
-0.16751979929617647
-0.39358092485471813
-0.2570070314486243
0.11510443669910202
0.7446017038830866
-0.44823385881682964
0.17313876038529705
0.7977990366743036
0.2681874579581452
0.4109485781948048
-0.615116080489173
-0.63206408080287
-0.3267574437871814
-0.18749774009305872
-0.37526736481624834
-0.20680176868993394
-0.3527810270207962
-0.7049075568781562
-0.26815986082532345
-0.5066921429691659
0.6240623221951628
-0.6874075948299209
-0.18045818270703007
-0.38547159648894747
-0.38202435181156913
-0.4431962505725722
0.12904632588360024
-0.4843268192297094
-0.618509369491342
0.34962892615349456
0.11009254470294165
0.11657624861920719
0.20556941623426328
0.5027327659883432
0.3644726970077551
0.0890446625615506
-0.4672220087912103
0.6234211289353556
0.27987949902741194
-0.0338970838642
0.5050488523662803
0.8085804761668659
-0.7098972495931194
-0.159536536979435
-0.7964896861755757
-0.747164211324808
0.09993127617432668
-0.41141932272040654
0.03158024137221991
0.11735686335325486
0.24197352348412596
0.3981525685240355
-0.5899364430674963
0.23218375800043142
-0.043922567925627994
-0.09207796042479453
0.2835820810474988
-0.3173217863091201
0.07947080629351291
-0.30431166053475134
-0.030912823723445962
-0.13236474670045886
-0.5166744738637121
-0.6526082430901505
0.6803032608295679
0.34064609634741533
-0.2753775755949742
0.5866011883994723
-0.6985969998111476
-0.2407569545932281
0.49291134985214724
-0.43322484309226195
-0.8795602600346835
0.5062668011037064
0.15458826139355655
0.20113764243280552
-0.047485419021878195
0.21413758556244358
0.16022096069967687
-0.3867095773219983
0.10464114489763637
-0.43152775891100215
-0.953848968691518
-0.29865990959628774
-0.05259399708784025
-0.1566230951330449
-0.2553949563792692
-0.38475760540356435
0.44298852592616633
-0.18631602131851618
-0.6955896925722495
0.516430991705196
-0.05124178475662435
-0.6052362491792952
-0.6104372193700124
0.14750507837762145
-0.48299895578779023
0.3292200669352604
0.4555950969360702
-0.44838750449865894
0.5235677435719059
0.2913185294136596
-0.09547812861777961
0.0951909754540526
-0.5728121142291229
-0.9151124925854922
-0.07509919319994872
-0.07445835711121557
0.0696495428116819
-0.4305555750463095
0.4911591982403282
-0.5162849287072154
-1.1066789077107848
0.009720414637993384
-0.3598673282125538
0.8440180860396164
0.4987744368929141
-0.26080251645312963
-0.367662341130108
-0.556954966001263
-0.7489721963625279
-0.4669418507475355
-0.6020959342080814
0.25297920742765334
-0.11078625846812347
-0.7130599010921128
0.0633766024160226
-0.9540857136278393
-0.6013231154027525
