@shape=(148,)
@dtype=float64
0.0085614683317234621
-0.11175866817659008
-0.044584793601112969
-0.0067330589180758741
-0.0060717074768182073
-0.036065479848022421
0.0035199958015206412
0.068524961923973879
-0.010598555290836632
0.022470072087194329
-0.1118340965406691
0.038713007926128307
-0.067194246205154365
-0.089883219009643092
0.14818167544996791
0.024354162316353532
-0.06904416735545027
-0.031440169575095239
0.12813064426820089
0.13823591892913015
-0.010495788281678128
0.10791318988831557
-0.047271344769905174
0.086988365436277554
-0.064521302062396924
-0.041533570808283085
0.0181782470868012
0.016630240208121306
0.0056526988426355484
-0.10031212412896283
0.026671981421556804
0.038613011557456188
0.064734265009993436
0.11302467651901597
-0.03967054853322792
-0.055341600949036188
0.068428589117591698
-0.10042940691171433
0.017104163755251655
-0.06818091166736466
0.079897813621339533
0.049204084336430615
-0.092899595970468027
0.12727848198948155
0.075928083804436469
-0.051264827396604908
-0.0063775015520282675
0.0099709672817544694
0.025698090502535513
-0.052808664956139471
0.14786679680094719
0.072734876348682281
-0.00093262128237461372
-0.073219563375874083
-0.1103305277177186
0.032666564911837004
-0.058195405315017337
-0.10926059497931034
-0.070673361933409617
0.040011640347931969
-0.062067031968656941
0.077032006656527263
-0.072548998893375988
0.017822603880581607
0.044289163690401166
0.099399202534460385
-0.023427182541216101
-0.034247321547213383
-0.094193566776893958
0.099753633422166796
-0.084053992490543655
-0.067710372304979893
0.0075619197202532861
-0.048955523137681069
-0.016812069501645547
0.069306267989388201
-0.079409584125740132
-0.13395896086085973
0.008888427721436911
-0.05873912859934189
-0.084728752841713828
-0.11020390950517986
-0.0586076796198799
-0.036181605282623895
0.02641278817693149
-0.039106006112659034
-0.03712145061906872
-0.10242518331050518
0.038838235409070346
0.027668042445494239
-0.017720301532845609
0.01868203064060699
0.10543708657458559
0.13041247021981214
-0.049029038990104967
0.062469302149418121
-0.081570224007797787
-0.095284219874425674
0.041225682209281106
0.06606534263535857
-0.10966096336243501
-0.091295440216910981
0.068521980341154906
-0.036915402755694542
0.092899404051594067
0.069009483773628824
-0.027496823530840448
-0.077214745120048514
0.067556085980404079
-0.064775370997821116
0.096053298774443838
-0.035492583109081294
-0.090372332738004837
-0.038358201391116883
0.04452146868266578
-0.067249896055410041
0.11989984798261483
-0.069065673918116591
-0.10444324415700204
-0.064256178857611673
-0.089497097119698554
-0.0041448438041878453
-0.076075393893460949
-0.058145376868624997
0.10092365000968959
-0.088402817080049073
-0.081945693604443176
-0.026097167730003298
0.080790141765635815
-0.062798767525598598
-0.0301840212552625
-0.13430889914410807
0.090647075516297609
0.043373413502852516
-0.027616934299930292
-0.034339653088671013
-0.045675447154717157
0.037507030289863706
-0.028176472573420819
0.06499954921364734
0.018143323569342111
-0.010823665309791345
0.033494742380076784
0.0011172535153349127
-0.032628636386512186
0.064291261591286009
0.0028216653628462961
-0.033665824977439494
