@CO	shape:(148,)
@CO	dtype:float64
VALUE_0
0.008561468331724545
-0.11175866817658768
-0.044584793601112914
-0.006733058918073595
-0.00607170747681495
-0.03606547984802079
0.0035199958015224206
0.06852496192397298
-0.010598555290834456
0.022470072087192924
-0.11183409654066781
0.03871300792612899
-0.06719424620515194
-0.08988321900964089
0.14818167544996202
0.024354162316352124
-0.0690441673554478
-0.03144016957509387
0.12813064426819512
0.1382359189291263
-0.010495788281675567
0.10791318988831154
-0.04727134476990698
0.08698836543627467
-0.06452130206239615
-0.041533570808281677
0.01817824708679937
0.016630240208117278
0.005652698842635341
-0.10031212412896136
0.026671981421556284
0.03861301155745221
0.06473426500999226
0.11302467651901418
-0.03967054853322643
-0.05534160094903407
0.06842858911759157
-0.10042940691171329
0.017104163755249563
-0.06818091166736304
0.07989781362133064
0.04920408433642924
-0.09289959597046481
0.12727848198947866
0.07592808380443535
-0.05126482739660311
-0.0063775015520280845
0.009970967281753701
0.02569809050253492
-0.05280866495613934
0.14786679680094572
0.07273487634868074
-0.0009326212823720698
-0.07321956337587308
-0.11033052771771715
0.032666564911837954
-0.05819540531501657
-0.10926059497930693
-0.07067336193340734
0.04001164034793118
-0.06206703196865676
0.07703200665652575
-0.07254899889337268
0.01782260388057924
0.04428916369039915
0.09939920253445847
-0.023427182541214904
-0.0342473215472134
-0.09419356677689075
0.09975363342216542
-0.0840539924905399
-0.06771037230497837
0.007561919720254398
-0.04895552313768015
-0.016812069501644416
0.06930626798938522
-0.07940958412573577
-0.13395896086085088
0.00888842772143565
-0.058739128599341335
-0.0847287528417109
-0.11020390950517756
-0.05860767961988049
-0.03618160528262515
0.026412788176931674
-0.03910600611265644
-0.03712145061906548
-0.1024251833105023
0.03883823540906824
0.02766804244549418
-0.01772030153284487
0.01868203064060577
0.1054370865745825
0.13041247021980823
-0.049029038990104704
0.06246930214940526
-0.0815702240077959
-0.0952842198744225
0.04122568220927892
0.06606534263535632
-0.1096609633624315
-0.09129544021690841
0.06852198034115155
-0.03691540275569574
0.09289940405158949
0.06900948377362809
-0.027496823530838606
-0.07721474512004983
0.06755608598040143
-0.06477537099781866
0.0960532987744422
-0.0354925831090781
-0.09037233273800169
-0.03835820139111856
0.04452146868266425
-0.06724989605540835
0.1198998479826122
-0.06906567391811361
-0.10444324415699925
-0.06425617885761005
-0.08949709711969599
-0.004144843804190045
-0.07607539389345709
-0.05814537686862163
0.10092365000968644
-0.08840281708004886
-0.08194569360444187
-0.026097167730001234
0.08079014176563036
-0.06279876752559771
-0.030184021255263732
-0.13430889914410693
0.0906470755162951
0.043373413502852703
-0.027616934299931083
-0.034339653088670374
-0.04567544715471601
0.03750703028986475
-0.028176472573420725
0.06499954921364816
0.018143323569343325
-0.01082366530979066
0.03349474238007635
0.001117253515333043
-0.032628636386510895
0.06429126159128426
0.002821665362845621
-0.03366582497743812
